svm_type c_svc
kernel_type linear
nr_class 2
total_sv 3
rho -0.77382525930929269
label 1 -1
probA -2.4803486001369031
probB -0.31104977031812614
nr_sv 2 1
SV
0.21830366492064313 1:5.1 2:3.3 3:1.7 4:0.5 
0.34115593497309121 1:4.8 2:3.4 3:1.9 4:0.2 
-0.55945959989373428 1:4.9 2:2.4 3:3.3 4:1 
