svm_type epsilon_svr
kernel_type rbf
gamma 1
nr_class 2
total_sv 9
rho -0.21442336320877067
probA 0.099303191139023653
SV
1 1:0.697 
1 1:0.774 
0.67138842799068921 1:0.608 
-1 1:0.666 
0.32861157200931085 1:0.243 
-1 1:0.245 
1 1:0.36 
-1 1:0.593 
-1 1:0.719 
