svm_type c_svc
kernel_type rbf
gamma 0.25
nr_class 2
total_sv 7
rho 0.13436257455469611
label 1 -1
probA -3.3786951771477836
probB 0.0042620646772832263
nr_sv 4 3
SV
0.67790332585451707 1:4.4 2:2.9 3:1.4 4:0.2 
0.58083107807394418 1:5.7 2:4.4 3:1.5 4:0.4 
0.25603598180822196 1:5.1 2:3.3 3:1.7 4:0.5 
0.53119467380522756 1:4.8 2:3.4 3:1.9 4:0.2 
-0.53179196812475671 1:7 2:3.2 3:4.7 4:1.4 
-1.3463704603213571 1:4.9 2:2.4 3:3.3 4:1 
-0.16780263109579691 1:6.7 2:3 3:5 4:1.7 
